3.487024370696957476e+00
-6.971535784159641480e-01
1.979263888482591938e-01
2.361850554899547205e-02
1.466339271694039326e-03
2.035490961694108591e-02
1.136749934474210022e+00
-2.411724824637531128e-01
-1.042331249370420210e+00
-1.027124054020589483e-02
2.389000347468481777e-01
5.371511594439652981e-01
3.774751543251682051e-01
-6.297120283468871094e-02
-1.213819660408717027e-01
3.816833886094173067e-02
-2.252516162668030120e-01
2.552863214622647092e-02
9.455858824873075719e-02
5.779039553390248329e-01
4.414890954700467773e-02
-2.550366873603948648e-02
1.847872637767622450e-02
5.724494999257458971e-01
-4.049099742645125843e-01
-2.158815029514755679e-01
1.748842081937347359e-01
-1.094993459004314218e-01
-9.347659247185902132e-02
-9.541361295958949995e-02
-1.536595003085174937e-01
3.570463436170996374e-01
-7.086333536602751337e-02
-8.623346494483996594e-02
-1.590100270086729495e-01
2.753028774749566310e-01
-1.182817692303217427e-03
-3.162895920348773871e-01
-8.456985696176388956e-02
-8.589458749867162624e-03
-6.649390736093891974e-01
-2.448755133976732168e-01
1.389432843692191000e-01
-2.238756622144819630e-01
-3.176683429843762951e-02
-3.929765963919756855e-02
2.304117998530493261e-01
-5.729623792636440172e-02
-2.986119888607996486e-02
-2.881911723985126628e-01
4.572707970276752576e-01
-3.276849160435091335e-01
2.985255424882780062e-01
-1.410461129699815963e-01
2.392222392979190260e-04
2.616158075421193274e-02
-3.886341511276185656e-01
-1.209736625878798932e-02
-4.133397289541917985e-02
-2.733989432779679873e-01
3.311939042249036902e-01
1.485296447917065166e+00
-2.103205805451668908e-01
-2.878404309926079208e-01
1.443897775909348979e+00
-8.453854632980051242e-02
-2.267297599838098421e-01
1.645488699141324673e+00
-1.065908834093987068e-01
-1.372325141191410580e-01
-5.135312573898929145e-01
1.045576328992581239e-02
-4.904246042268567418e-02
3.518844326769681174e-01
-6.874272477361387246e-02
-8.531355885136382433e-02
6.822105295763947197e-02
-4.338579552330301681e-01
-6.290382362874158417e-02
2.134360872416760646e-01
2.578858643064734224e-01
-3.364671530863372340e-02
2.857658859996679013e-01
3.239729563372506504e-02
3.143724291411853500e-03
-1.831377835005412180e-01
-5.742149827336646695e-01
3.970289400433486549e-01
-1.171336349296048240e-02
1.385604059107450325e-01
3.722361536344660493e-01
3.065855062959954580e-02
-1.552697181819446826e-01
-4.218268466085497437e-01
-8.648119707535428802e-03
-5.453261462932594839e-01
-1.463059195137450530e-02
-2.960448996962572465e-02
5.705049085463897995e-02
-1.270353246796180002e+00
-6.468627763831520383e-01
-7.346199265532931122e-01
-1.262543527258159770e-01
1.759548824410046564e-01
-7.596643382814107781e-01
-4.864676262419749264e-01
-6.137625168701887901e-02
-7.034618870739990371e-01
-5.391820713125472508e-02
-1.709176466692419183e-02
-6.599084166474966651e-02
6.298337651187857489e-02
-3.543258953426704494e-01
2.331208497348917774e-01
-9.317500963453628771e-03
-2.559588203750329249e-01
3.634206152320729188e-02
-4.443178308653870090e-01
-3.720925705237974057e-01
-1.631645298198023397e-01
-1.676349569694011166e-01
3.798446188798756395e-01
7.266728113867628736e-01
-2.286895481245778683e-01
-8.122795584344899567e-02
-7.313636839611170615e-03
-3.210844521530873408e-01
3.538845628994238268e-01
-5.029371470187617987e-01
-3.071162193981713529e-01
-7.556350575749615217e-01
-3.449716653546097689e-02
-2.087161007951721103e-02
4.919625216264336132e-01
-2.293734859995977260e-01
-7.807512485449663586e-01
9.408782484437523408e-01
4.029021264784660161e-02
7.975260866298725659e-01
1.867383997798421902e-01
-2.313238844270681938e-01
-3.901029335653198871e-01
1.625687780243438851e-01
-2.396141017660475825e-01
-8.487158974524344757e-03
1.047274190261351379e-01
-1.372445209184780524e-02
-7.580412565732856933e-01
-1.166093711241344977e-01
-3.362597208397222204e-02
-6.598489698547069793e-01
-1.822617758981275315e-01
-2.380255664692541018e-01
-2.491707837355914279e-01
-6.448997185053428893e-04
3.881791985613745055e-01
-3.159736934160406463e-01
-8.033700598427628847e-02
-8.611440464630959468e-01
7.647048923087709227e-01
-1.975387156229668761e-02
1.351017643356300368e-01
-4.480834112715683659e-01
-1.652713330781665491e-01
-2.287296377344354426e-01
-4.251453847017359067e-01
6.818047983414814439e-01
-2.767892201772603755e-02
-2.223417591163467932e-01
1.498790402173108660e+00
-4.358108758425549567e-02
-9.265358852687484159e-01
1.650249530887570870e-02
-2.116420797977340840e-01
7.219261678397259629e-02
-1.931542339446217227e-01
8.934033091415116701e-02
3.000302920638198145e-01
-4.064389317716674555e-01
1.169947939514841551e-01
8.029049932752059249e-01
-1.519991096357440341e-01
2.947705811605416670e-02
-2.489944598930389219e-01
8.098972956309751225e-01
-1.328752860756488019e-02
-2.676827966595425323e-01
8.686110771214856641e-01
-6.927635966068246276e-01
2.849868904419388116e-01
-5.174132823056538655e-01
-8.374221750613131121e-02
3.459668039565215736e-01
-4.267795901634467981e-01
-1.751558785181961397e-02
-1.050751074849349820e-01
-2.389177820120886864e-01
7.947223171349477866e-01
3.770011430791697649e-02
-2.788588111609797693e-01
-1.684135695135324795e-02
3.587512840539375247e-03
-1.645862955769636926e-01
3.069007336584652634e-01
-4.618058507816158453e-02
-3.315014813602097377e-01
-3.234337631793593459e-03
-3.512345908968548258e-01
-3.236298689985943611e-01
4.247721126930059654e-03
-9.912876112609936285e-03
1.019146168204692060e+00
-5.342621178328528231e-01
-1.786561714438805737e-02
8.131309656684493348e-02
-5.371278462100619322e-01
-3.440467370920430312e-01
1.110905917593925096e-01
2.720512442374865003e-01
-4.336202942119768977e-01
7.676146469913476267e-01
-2.832740576497627671e-02
1.502945184938795364e-01
-5.282895310826276614e-01
-2.166436923882120169e-02
5.277857741296401173e-01
6.060114890396839371e-02
-9.177212392025069221e-03
2.574401503285415060e-01
4.643381806956980995e-01
-1.966965547995869201e-02
8.358210451411309805e-01
1.563191638689360730e-01
-4.397457660220780440e-01
4.438798635266536508e-01
-5.181154136665000465e-01
-3.722900322966857800e-01
-5.291295622143366018e-02
4.904284533330756091e-01
7.215311716629528860e-01
3.469510721016888510e-01
6.892750490767483029e-01
5.499876692893224117e-01
4.606327546213151436e-03
2.663097937228631196e-03
-2.914205864726904238e-03
